{
  "layer": "mnist_mlp_w8_qat_classifier_weights_io",
  "op": "linear",
  "raw_definition": "output = input @ weight (no bias, no scale)",
  "input_shape": [
    16,
    16
  ],
  "weight_shape": [
    16,
    10
  ],
  "output_shape": [
    16,
    10
  ],
  "dtype": "int32",
  "input": [
    [
      0,
      0,
      33,
      37,
      28,
      25,
      58,
      113,
      4,
      64,
      117,
      0,
      55,
      100,
      65,
      0
    ],
    [
      0,
      82,
      23,
      50,
      55,
      0,
      51,
      115,
      0,
      74,
      115,
      2,
      58,
      104,
      33,
      0
    ],
    [
      7,
      89,
      35,
      0,
      39,
      0,
      51,
      94,
      87,
      59,
      111,
      0,
      52,
      114,
      59,
      0
    ],
    [
      0,
      50,
      29,
      80,
      17,
      28,
      59,
      0,
      60,
      9,
      118,
      0,
      54,
      71,
      57,
      0
    ],
    [
      25,
      0,
      23,
      82,
      48,
      32,
      59,
      0,
      77,
      54,
      127,
      0,
      54,
      102,
      0,
      0
    ],
    [
      19,
      76,
      21,
      64,
      0,
      39,
      60,
      111,
      23,
      0,
      0,
      2,
      66,
      0,
      60,
      0
    ],
    [
      13,
      82,
      22,
      0,
      25,
      0,
      57,
      96,
      0,
      35,
      117,
      4,
      61,
      103,
      52,
      0
    ],
    [
      33,
      82,
      27,
      40,
      44,
      54,
      61,
      106,
      28,
      59,
      120,
      0,
      54,
      91,
      61,
      0
    ],
    [
      18,
      85,
      0,
      78,
      28,
      29,
      66,
      110,
      16,
      62,
      72,
      0,
      59,
      103,
      52,
      0
    ],
    [
      21,
      106,
      19,
      83,
      36,
      0,
      53,
      75,
      26,
      54,
      119,
      0,
      43,
      0,
      63,
      0
    ],
    [
      15,
      68,
      41,
      56,
      61,
      0,
      53,
      63,
      49,
      71,
      123,
      0,
      45,
      103,
      68,
      0
    ],
    [
      0,
      78,
      20,
      94,
      29,
      60,
      47,
      39,
      39,
      61,
      122,
      0,
      48,
      104,
      52,
      0
    ],
    [
      0,
      102,
      18,
      98,
      51,
      37,
      51,
      118,
      27,
      72,
      0,
      0,
      72,
      106,
      62,
      0
    ],
    [
      29,
      90,
      34,
      74,
      23,
      80,
      49,
      0,
      19,
      62,
      122,
      0,
      50,
      117,
      62,
      0
    ],
    [
      5,
      0,
      22,
      35,
      0,
      0,
      60,
      85,
      0,
      59,
      113,
      0,
      58,
      113,
      54,
      0
    ],
    [
      40,
      111,
      40,
      73,
      15,
      0,
      53,
      96,
      49,
      69,
      127,
      0,
      59,
      0,
      64,
      0
    ]
  ],
  "weight": [
    [
      64,
      39,
      41,
      54,
      -28,
      72,
      63,
      -74,
      -54,
      30
    ],
    [
      -27,
      50,
      -31,
      -55,
      -113,
      -104,
      -15,
      69,
      72,
      -18
    ],
    [
      -17,
      -97,
      48,
      -89,
      76,
      -28,
      22,
      45,
      17,
      -26
    ],
    [
      22,
      31,
      91,
      -36,
      -57,
      3,
      -44,
      13,
      -108,
      -66
    ],
    [
      100,
      17,
      1,
      37,
      -21,
      -83,
      -29,
      6,
      88,
      40
    ],
    [
      -4,
      70,
      -62,
      -127,
      81,
      -33,
      -31,
      54,
      46,
      -3
    ],
    [
      86,
      -56,
      -78,
      62,
      21,
      -45,
      16,
      -7,
      -47,
      40
    ],
    [
      64,
      54,
      50,
      32,
      -82,
      -48,
      -72,
      67,
      7,
      -95
    ],
    [
      -3,
      68,
      -76,
      45,
      -6,
      84,
      -55,
      12,
      13,
      21
    ],
    [
      56,
      34,
      48,
      8,
      74,
      -29,
      -118,
      38,
      -34,
      98
    ],
    [
      -63,
      -64,
      -3,
      47,
      -11,
      82,
      -74,
      43,
      41,
      -16
    ],
    [
      11,
      -24,
      35,
      48,
      27,
      -9,
      29,
      -58,
      43,
      -89
    ],
    [
      -65,
      17,
      48,
      -6,
      -29,
      51,
      65,
      -56,
      74,
      59
    ],
    [
      -104,
      -12,
      -22,
      64,
      65,
      -70,
      -53,
      43,
      -92,
      64
    ],
    [
      60,
      -25,
      -85,
      -105,
      2,
      43,
      52,
      67,
      -30,
      -4
    ],
    [
      -53,
      98,
      29,
      46,
      50,
      -46,
      59,
      -59,
      -42,
      -124
    ]
  ],
  "output": [
    [
      1299,
      -3904,
      1887,
      6240,
      2248,
      -5322,
      -24472,
      23735,
      -6163,
      3199
    ],
    [
      56,
      1729,
      5907,
      9456,
      -10473,
      -17039,
      -29193,
      26097,
      162,
      3121
    ],
    [
      -3894,
      3070,
      -9171,
      10374,
      -6406,
      -7868,
      -26762,
      27375,
      3584,
      8329
    ],
    [
      -8005,
      -3413,
      -7496,
      -927,
      -2685,
      3928,
      -14432,
      16980,
      -3470,
      3778
    ],
    [
      -6567,
      -324,
      -240,
      13791,
      6398,
      4637,
      -24868,
      11653,
      -7908,
      13515
    ],
    [
      11586,
      10990,
      97,
      -10573,
      -17733,
      -8387,
      -4335,
      15222,
      1111,
      -9871
    ],
    [
      -5134,
      -3003,
      -2863,
      8502,
      -8717,
      -10776,
      -18114,
      22495,
      3026,
      3687
    ],
    [
      2879,
      5375,
      -3266,
      1840,
      -7030,
      -10567,
      -25446,
      27520,
      1564,
      3356
    ],
    [
      3434,
      9175,
      1473,
      3832,
      -11640,
      -15356,
      -24592,
      24442,
      -7428,
      2210
    ],
    [
      9377,
      3687,
      2660,
      -2035,
      -20236,
      -3490,
      -19634,
      21858,
      3732,
      -4596
    ],
    [
      872,
      -1082,
      -1923,
      6700,
      -4381,
      -7292,
      -26267,
      25411,
      -2867,
      8033
    ],
    [
      -6383,
      4227,
      -3117,
      -2954,
      -2202,
      -7849,
      -27682,
      26502,
      -4961,
      5152
    ],
    [
      7953,
      16051,
      3557,
      -4981,
      -12331,
      -25133,
      -23447,
      26715,
      -6696,
      2394
    ],
    [
      -9299,
      1362,
      -6272,
      -7582,
      3821,
      -7928,
      -21510,
      24886,
      -4882,
      10835
    ],
    [
      -4781,
      -6570,
      2217,
      10489,
      2721,
      -2006,
      -20636,
      18680,
      -10998,
      6005
    ],
    [
      8412,
      4917,
      4042,
      -1568,
      -20026,
      487,
      -21048,
      23254,
      4073,
      -4072
    ]
  ]
}